digraph Tree {
node [shape=box, style="filled, rounded", color="black", fontname=helvetica] ;
edge [fontname=helvetica] ;
0 [label="petal length (cm) <= 2.45\ngini = 0.664\nsamples = 135\nvalue = [44, 50, 41]\nclass = versicolor", fillcolor="#f2fdf7"] ;
1 [label="gini = 0.0\nsamples = 44\nvalue = [44, 0, 0]\nclass = setosa", fillcolor="#e58139"] ;
0 -> 1 [labeldistance=2.5, labelangle=45, headlabel="True"] ;
2 [label="petal width (cm) <= 1.75\ngini = 0.495\nsamples = 91\nvalue = [0, 50, 41]\nclass = versicolor", fillcolor="#dbfae8"] ;
0 -> 2 [labeldistance=2.5, labelangle=-45, headlabel="False"] ;
3 [label="petal length (cm) <= 5.35\ngini = 0.109\nsamples = 52\nvalue = [0, 49, 3]\nclass = versicolor", fillcolor="#45e789"] ;
2 -> 3 ;
4 [label="petal width (cm) <= 1.65\ngini = 0.039\nsamples = 50\nvalue = [0, 49, 1]\nclass = versicolor", fillcolor="#3de684"] ;
3 -> 4 ;
5 [label="gini = 0.0\nsamples = 48\nvalue = [0, 48, 0]\nclass = versicolor", fillcolor="#39e581"] ;
4 -> 5 ;
6 [label="petal length (cm) <= 4.75\ngini = 0.5\nsamples = 2\nvalue = [0, 1, 1]\nclass = versicolor", fillcolor="#ffffff"] ;
4 -> 6 ;
7 [label="gini = 0.0\nsamples = 1\nvalue = [0, 0, 1]\nclass = virginica", fillcolor="#8139e5"] ;
6 -> 7 ;
8 [label="gini = 0.0\nsamples = 1\nvalue = [0, 1, 0]\nclass = versicolor", fillcolor="#39e581"] ;
6 -> 8 ;
9 [label="gini = 0.0\nsamples = 2\nvalue = [0, 0, 2]\nclass = virginica", fillcolor="#8139e5"] ;
3 -> 9 ;
10 [label="petal length (cm) <= 4.85\ngini = 0.05\nsamples = 39\nvalue = [0, 1, 38]\nclass = virginica", fillcolor="#843ee6"] ;
2 -> 10 ;
11 [label="gini = 0.444\nsamples = 3\nvalue = [0, 1, 2]\nclass = virginica", fillcolor="#c09cf2"] ;
10 -> 11 ;
12 [label="gini = 0.0\nsamples = 36\nvalue = [0, 0, 36]\nclass = virginica", fillcolor="#8139e5"] ;
10 -> 12 ;
}