digraph Tree {
node [shape=box, style="filled, rounded", color="black", fontname=helvetica] ;
edge [fontname=helvetica] ;
0 [label="petal length (cm) <= 2.45\nentropy = 1.566\nsamples = 105\nvalue = [42, 28, 35]\nclass = setosa", fillcolor="#fcf2eb"] ;
1 [label="entropy = 0.0\nsamples = 42\nvalue = [42, 0, 0]\nclass = setosa", fillcolor="#e58139"] ;
0 -> 1 [labeldistance=2.5, labelangle=45, headlabel="True"] ;
2 [label="petal length (cm) <= 4.75\nentropy = 0.991\nsamples = 63\nvalue = [0, 28, 35]\nclass = virginica", fillcolor="#e6d7fa"] ;
0 -> 2 [labeldistance=2.5, labelangle=-45, headlabel="False"] ;
3 [label="entropy = 0.0\nsamples = 27\nvalue = [0, 27, 0]\nclass = versicolor", fillcolor="#39e581"] ;
2 -> 3 ;
4 [label="entropy = 0.183\nsamples = 36\nvalue = [0, 1, 35]\nclass = virginica", fillcolor="#853fe6"] ;
2 -> 4 ;
}