digraph Tree {
node [shape=box, style="filled, rounded", color="black", fontname=helvetica] ;
edge [fontname=helvetica] ;
0 [label="petal length (cm) <= 2.6\ngini = 0.666\nsamples = 129\nvalue = [44, 41, 44]\nclass = setosa", fillcolor="#ffffff"] ;
1 [label="gini = 0.0\nsamples = 44\nvalue = [44, 0, 0]\nclass = setosa", fillcolor="#e58139"] ;
0 -> 1 [labeldistance=2.5, labelangle=45, headlabel="True"] ;
2 [label="petal width (cm) <= 1.75\ngini = 0.499\nsamples = 85\nvalue = [0, 41, 44]\nclass = virginica", fillcolor="#f6f2fd"] ;
0 -> 2 [labeldistance=2.5, labelangle=-45, headlabel="False"] ;
3 [label="petal length (cm) <= 5.05\ngini = 0.091\nsamples = 42\nvalue = [0, 40, 2]\nclass = versicolor", fillcolor="#43e687"] ;
2 -> 3 ;
4 [label="gini = 0.0\nsamples = 39\nvalue = [0, 39, 0]\nclass = versicolor", fillcolor="#39e581"] ;
3 -> 4 ;
5 [label="petal length (cm) <= 5.45\ngini = 0.444\nsamples = 3\nvalue = [0, 1, 2]\nclass = virginica", fillcolor="#c09cf2"] ;
3 -> 5 ;
6 [label="gini = 0.5\nsamples = 2\nvalue = [0, 1, 1]\nclass = versicolor", fillcolor="#ffffff"] ;
5 -> 6 ;
7 [label="gini = 0.0\nsamples = 1\nvalue = [0, 0, 1]\nclass = virginica", fillcolor="#8139e5"] ;
5 -> 7 ;
8 [label="petal length (cm) <= 4.85\ngini = 0.045\nsamples = 43\nvalue = [0, 1, 42]\nclass = virginica", fillcolor="#843ee6"] ;
2 -> 8 ;
9 [label="gini = 0.444\nsamples = 3\nvalue = [0, 1, 2]\nclass = virginica", fillcolor="#c09cf2"] ;
8 -> 9 ;
10 [label="gini = 0.0\nsamples = 40\nvalue = [0, 0, 40]\nclass = virginica", fillcolor="#8139e5"] ;
8 -> 10 ;
}