digraph Tree {
node [shape=box, style="filled, rounded", color="black", fontname=helvetica] ;
edge [fontname=helvetica] ;
0 [label="petal length (cm) <= 2.45\nentropy = 1.578\nsamples = 100\nvalue = [37, 34, 29]\nclass = setosa", fillcolor="#fef9f6"] ;
1 [label="entropy = 0.0\nsamples = 37\nvalue = [37, 0, 0]\nclass = setosa", fillcolor="#e58139"] ;
0 -> 1 [labeldistance=2.5, labelangle=45, headlabel="True"] ;
2 [label="petal length (cm) <= 4.95\nentropy = 0.995\nsamples = 63\nvalue = [0, 34, 29]\nclass = versicolor", fillcolor="#e2fbec"] ;
0 -> 2 [labeldistance=2.5, labelangle=-45, headlabel="False"] ;
3 [label="petal width (cm) <= 1.65\nentropy = 0.316\nsamples = 35\nvalue = [0, 33, 2]\nclass = versicolor", fillcolor="#45e789"] ;
2 -> 3 ;
4 [label="entropy = 0.0\nsamples = 32\nvalue = [0, 32, 0]\nclass = versicolor", fillcolor="#39e581"] ;
3 -> 4 ;
5 [label="petal length (cm) <= 4.65\nentropy = 0.918\nsamples = 3\nvalue = [0, 1, 2]\nclass = virginica", fillcolor="#c09cf2"] ;
3 -> 5 ;
6 [label="entropy = 0.0\nsamples = 1\nvalue = [0, 0, 1]\nclass = virginica", fillcolor="#8139e5"] ;
5 -> 6 ;
7 [label="entropy = 1.0\nsamples = 2\nvalue = [0, 1, 1]\nclass = versicolor", fillcolor="#ffffff"] ;
5 -> 7 ;
8 [label="petal width (cm) <= 1.75\nentropy = 0.222\nsamples = 28\nvalue = [0, 1, 27]\nclass = virginica", fillcolor="#8640e6"] ;
2 -> 8 ;
9 [label="petal width (cm) <= 1.6\nentropy = 0.811\nsamples = 4\nvalue = [0, 1, 3]\nclass = virginica", fillcolor="#ab7bee"] ;
8 -> 9 ;
10 [label="entropy = 0.0\nsamples = 3\nvalue = [0, 0, 3]\nclass = virginica", fillcolor="#8139e5"] ;
9 -> 10 ;
11 [label="entropy = 0.0\nsamples = 1\nvalue = [0, 1, 0]\nclass = versicolor", fillcolor="#39e581"] ;
9 -> 11 ;
12 [label="entropy = 0.0\nsamples = 24\nvalue = [0, 0, 24]\nclass = virginica", fillcolor="#8139e5"] ;
8 -> 12 ;
}